{"train mse": 0.00017875655612442642, "_timestamp": 1668047550.3595, "_runtime": 1562.3899879455566, "_step": 3414, "test mse": 0.000169913109857589, "gradients/decoder.decoder.0.bias": {"_type": "histogram", "values": [1.0, 0.0, 0.0, 0.0, 0.0, 0.0, 0.0, 0.0, 0.0, 0.0, 0.0, 0.0, 0.0, 0.0, 0.0, 0.0, 0.0, 0.0, 0.0, 0.0, 0.0, 0.0, 0.0, 0.0, 1.0, 0.0, 0.0, 0.0, 0.0, 0.0, 0.0, 0.0, 0.0, 0.0, 0.0, 0.0, 0.0, 0.0, 0.0, 0.0, 0.0, 0.0, 0.0, 0.0, 0.0, 0.0, 0.0, 0.0, 0.0, 0.0, 0.0, 0.0, 0.0, 0.0, 0.0, 0.0, 0.0, 0.0, 0.0, 0.0, 0.0, 0.0, 0.0, 1.0], "bins": [-12.055866241455078, -11.734132766723633, -11.412399291992188, -11.090666770935059, -10.768933296203613, -10.447199821472168, -10.125467300415039, -9.803733825683594, -9.482000350952148, -9.160266876220703, -8.838533401489258, -8.516800880432129, -8.195067405700684, -7.873333930969238, -7.551600933074951, -7.229867935180664, -6.908134460449219, -6.586400985717773, -6.264667987823486, -5.942934989929199, -5.621201515197754, -5.299468040466309, -4.9777350425720215, -4.656002044677734, -4.334268569946289, -4.012535095214844, -3.6908020973205566, -3.3690688610076904, -3.047335624694824, -2.725602388381958, -2.403869152069092, -2.0821359157562256, -1.7604036331176758, -1.4386703968048096, -1.1169371604919434, -0.7952039241790771, -0.47347068786621094, -0.15173745155334473, 0.16999578475952148, 0.4917290210723877, 0.8134622573852539, 1.1351954936981201, 1.4569287300109863, 1.7786619663238525, 2.1003952026367188, 2.422128438949585, 2.743861675262451, 3.0655949115753174, 3.3873281478881836, 3.70906138420105, 4.030794620513916, 4.352527618408203, 4.674261093139648, 4.995994567871094, 5.317727565765381, 5.639460563659668, 5.961194038391113, 6.282927513122559, 6.604660511016846, 6.926393508911133, 7.248126983642578, 7.569860458374023, 7.8915934562683105, 8.213326454162598, 8.535059928894043]}, "gradients/decoder.decoder.0.weight": {"_type": "histogram", "values": [1.0, 0.0, 1.0, 0.0, 0.0, 0.0, 0.0, 0.0, 0.0, 0.0, 0.0, 0.0, 0.0, 0.0, 0.0, 0.0, 0.0, 0.0, 0.0, 0.0, 0.0, 2.0, 0.0, 0.0, 0.0, 0.0, 1.0, 1.0, 1.0, 0.0, 1.0, 0.0, 1.0, 1.0, 0.0, 0.0, 0.0, 0.0, 2.0, 0.0, 0.0, 0.0, 0.0, 0.0, 0.0, 0.0, 0.0, 0.0, 0.0, 0.0, 1.0, 0.0, 0.0, 2.0, 0.0, 0.0, 0.0, 0.0, 1.0, 0.0, 0.0, 0.0, 1.0, 1.0], "bins": [-15.539812088012695, -15.061519622802734, -14.583227157592773, -14.104934692382812, -13.626642227172852, -13.14834976196289, -12.670056343078613, -12.191763877868652, -11.713471412658691, -11.23517894744873, -10.75688648223877, -10.278594017028809, -9.800300598144531, -9.32200813293457, -8.84371566772461, -8.365423202514648, -7.8871307373046875, -7.408838272094727, -6.930545806884766, -6.4522528648376465, -5.9739603996276855, -5.495667934417725, -5.0173749923706055, -4.5390825271606445, -4.060790061950684, -3.5824975967407227, -3.1042048931121826, -2.6259121894836426, -2.1476197242736816, -1.6693272590637207, -1.1910345554351807, -0.7127418518066406, -0.23444843292236328, 0.2438441514968872, 0.7221367359161377, 1.2004293203353882, 1.6787219047546387, 2.1570143699645996, 2.6353070735931396, 3.1135997772216797, 3.5918922424316406, 4.070184707641602, 4.5484771728515625, 5.026770114898682, 5.505062580108643, 5.9833550453186035, 6.461647987365723, 6.939940452575684, 7.4182329177856445, 7.8965253829956055, 8.374817848205566, 8.853110313415527, 9.331403732299805, 9.809696197509766, 10.287988662719727, 10.766281127929688, 11.244573593139648, 11.72286605834961, 12.20115852355957, 12.679450988769531, 13.157743453979492, 13.636035919189453, 14.11432933807373, 14.592621803283691, 15.070914268493652]}, "gradients/diffeq_solver.ode_func.gradient_net.6.bias": {"_type": "histogram", "values": [1.0, 0.0, 0.0, 0.0, 0.0, 0.0, 0.0, 0.0, 1.0, 0.0, 0.0, 0.0, 0.0, 0.0, 1.0, 0.0, 0.0, 0.0, 1.0, 0.0, 0.0, 0.0, 0.0, 0.0, 0.0, 0.0, 0.0, 0.0, 0.0, 0.0, 0.0, 0.0, 0.0, 0.0, 0.0, 0.0, 0.0, 0.0, 0.0, 0.0, 0.0, 0.0, 0.0, 0.0, 0.0, 0.0, 0.0, 0.0, 0.0, 1.0, 0.0, 0.0, 0.0, 0.0, 0.0, 0.0, 0.0, 0.0, 0.0, 0.0, 0.0, 0.0, 0.0, 1.0], "bins": [-2.212082862854004, -2.1039788722991943, -1.9958747625350952, -1.8877707719802856, -1.7796666622161865, -1.671562671661377, -1.5634586811065674, -1.4553546905517578, -1.3472505807876587, -1.2391465902328491, -1.13104248046875, -1.0229384899139404, -0.9148344397544861, -0.8067303895950317, -0.6986263990402222, -0.5905223488807678, -0.4824182987213135, -0.37431424856185913, -0.2662102282047272, -0.15810620784759521, -0.05000215768814087, 0.05810189247131348, 0.16620588302612305, 0.2743099331855774, 0.3824138641357422, 0.49051791429519653, 0.5986219644546509, 0.7067259550094604, 0.8148300051689148, 0.9229340553283691, 1.0310380458831787, 1.1391420364379883, 1.247246265411377, 1.3553502559661865, 1.4634543657302856, 1.5715583562850952, 1.6796624660491943, 1.787766456604004, 1.8958704471588135, 2.003974437713623, 2.1120786666870117, 2.2201826572418213, 2.328286647796631, 2.4363908767700195, 2.544494867324829, 2.6525988578796387, 2.7607028484344482, 2.868806838989258, 2.9769108295440674, 3.085014820098877, 3.1931188106536865, 3.301222801208496, 3.4093270301818848, 3.5174310207366943, 3.625535011291504, 3.7336390018463135, 3.841742992401123, 3.9498469829559326, 4.057950973510742, 4.166055202484131, 4.274158954620361, 4.38226318359375, 4.4903669357299805, 4.598471164703369, 4.706575393676758]}, "gradients/diffeq_solver.ode_func.gradient_net.6.weight": {"_type": "histogram", "values": [1.0, 0.0, 0.0, 0.0, 0.0, 0.0, 0.0, 0.0, 2.0, 1.0, 1.0, 1.0, 2.0, 1.0, 3.0, 0.0, 3.0, 4.0, 3.0, 2.0, 4.0, 9.0, 3.0, 4.0, 5.0, 7.0, 7.0, 8.0, 12.0, 17.0, 23.0, 26.0, 30.0, 42.0, 68.0, 71.0, 37.0, 38.0, 40.0, 32.0, 15.0, 9.0, 12.0, 12.0, 8.0, 7.0, 5.0, 1.0, 0.0, 1.0, 3.0, 3.0, 1.0, 2.0, 2.0, 2.0, 0.0, 3.0, 2.0, 2.0, 1.0, 1.0, 0.0, 1.0], "bins": [-1.979089617729187, -1.9225380420684814, -1.8659863471984863, -1.8094347715377808, -1.7528830766677856, -1.69633150100708, -1.639779806137085, -1.5832282304763794, -1.5266766548156738, -1.4701250791549683, -1.4135733842849731, -1.3570218086242676, -1.3004701137542725, -1.243918538093567, -1.1873669624328613, -1.1308152675628662, -1.074263572692871, -1.0177119970321655, -0.9611603021621704, -0.9046087265014648, -0.8480570316314697, -0.7915054559707642, -0.7349538207054138, -0.6784021854400635, -0.6218506097793579, -0.5652989745140076, -0.5087473392486572, -0.4521957337856293, -0.39564409852027893, -0.3390924632549286, -0.28254085779190063, -0.2259892225265503, -0.16943752765655518, -0.11288589984178543, -0.056334272027015686, 0.00021734833717346191, 0.056768983602523804, 0.11332061886787415, 0.1698722243309021, 0.22642385959625244, 0.28297555446624756, 0.3395271897315979, 0.39607882499694824, 0.4526304304599762, 0.5091820955276489, 0.5657336711883545, 0.6222853064537048, 0.6788369417190552, 0.7353885173797607, 0.7919401526451111, 0.8484917879104614, 0.905043363571167, 0.9615950584411621, 1.0181466341018677, 1.0746982097625732, 1.1312499046325684, 1.1878015995025635, 1.244353175163269, 1.3009048700332642, 1.3574564456939697, 1.4140081405639648, 1.4705597162246704, 1.527111291885376, 1.583662986755371, 1.6402145624160767]}, "gradients/diffeq_solver.ode_func.gradient_net.4.bias": {"_type": "histogram", "values": [1.0, 0.0, 0.0, 0.0, 0.0, 1.0, 0.0, 2.0, 0.0, 1.0, 2.0, 2.0, 3.0, 0.0, 0.0, 3.0, 2.0, 3.0, 2.0, 4.0, 2.0, 1.0, 2.0, 1.0, 2.0, 2.0, 3.0, 6.0, 1.0, 6.0, 8.0, 5.0, 0.0, 1.0, 2.0, 0.0, 2.0, 3.0, 4.0, 1.0, 1.0, 2.0, 0.0, 2.0, 1.0, 1.0, 3.0, 2.0, 0.0, 0.0, 2.0, 1.0, 0.0, 0.0, 2.0, 1.0, 2.0, 0.0, 1.0, 0.0, 0.0, 0.0, 0.0, 1.0], "bins": [-1.3503822088241577, -1.3095347881317139, -1.2686872482299805, -1.2278398275375366, -1.1869924068450928, -1.1461448669433594, -1.1052974462509155, -1.0644500255584717, -1.0236024856567383, -0.9827550053596497, -0.9419075846672058, -0.9010601043701172, -0.8602126836776733, -0.8193652033805847, -0.7785177230834961, -0.7376703023910522, -0.6968228816986084, -0.6559754014015198, -0.6151279807090759, -0.5742805004119873, -0.5334330797195435, -0.49258559942245483, -0.4517381191253662, -0.4108906686306, -0.37004321813583374, -0.3291957676410675, -0.28834831714630127, -0.24750083684921265, -0.2066533863544464, -0.16580593585968018, -0.12495847046375275, -0.08411100506782532, -0.04326355457305908, -0.0024160966277122498, 0.03843136131763458, 0.07927881926298141, 0.12012627720832825, 0.16097372770309448, 0.2018211930990219, 0.24266865849494934, 0.2835161089897156, 0.3243635594844818, 0.36521100997924805, 0.40605849027633667, 0.4469059407711029, 0.48775339126586914, 0.5286008715629578, 0.5694483518600464, 0.6102957725524902, 0.6511432528495789, 0.6919906735420227, 0.7328381538391113, 0.7736855745315552, 0.8145330548286438, 0.8553805351257324, 0.8962279558181763, 0.9370754361152649, 0.9779229164123535, 1.0187703371047974, 1.0596177577972412, 1.1004652976989746, 1.1413127183914185, 1.1821601390838623, 1.2230076789855957, 1.2638550996780396]}, "gradients/diffeq_solver.ode_func.gradient_net.4.weight": {"_type": "histogram", "values": [2.0, 0.0, 0.0, 2.0, 3.0, 2.0, 2.0, 1.0, 7.0, 8.0, 8.0, 12.0, 15.0, 18.0, 28.0, 33.0, 35.0, 40.0, 62.0, 61.0, 84.0, 114.0, 98.0, 160.0, 184.0, 268.0, 329.0, 458.0, 634.0, 935.0, 1166.0, 1223.0, 984.0, 716.0, 536.0, 399.0, 279.0, 216.0, 168.0, 145.0, 99.0, 93.0, 74.0, 53.0, 41.0, 43.0, 30.0, 26.0, 25.0, 21.0, 10.0, 11.0, 9.0, 11.0, 2.0, 3.0, 4.0, 4.0, 2.0, 3.0, 0.0, 0.0, 0.0, 1.0], "bins": [-0.5040598511695862, -0.4878947138786316, -0.4717295467853546, -0.45556437969207764, -0.43939924240112305, -0.42323410511016846, -0.4070689380168915, -0.3909037709236145, -0.3747386336326599, -0.3585734963417053, -0.34240832924842834, -0.32624316215515137, -0.3100780248641968, -0.2939128875732422, -0.2777477204799652, -0.26158255338668823, -0.24541741609573364, -0.22925226390361786, -0.21308711171150208, -0.1969219595193863, -0.1807568073272705, -0.16459165513515472, -0.14842650294303894, -0.13226135075092316, -0.11609619855880737, -0.09993104636669159, -0.0837658941745758, -0.06760074198246002, -0.05143558979034424, -0.035270437598228455, -0.01910528540611267, -0.002940133213996887, 0.013224959373474121, 0.029390111565589905, 0.04555526375770569, 0.06172041594982147, 0.07788556814193726, 0.09405072033405304, 0.11021587252616882, 0.1263810247182846, 0.1425461769104004, 0.15871132910251617, 0.17487648129463196, 0.19104163348674774, 0.20720678567886353, 0.2233719378709793, 0.2395370900630951, 0.25570225715637207, 0.27186739444732666, 0.28803253173828125, 0.3041976988315582, 0.3203628659248352, 0.3365280032157898, 0.3526931405067444, 0.36885830760002136, 0.38502347469329834, 0.40118861198425293, 0.4173537492752075, 0.4335189163684845, 0.4496840834617615, 0.46584922075271606, 0.48201435804367065, 0.49817952513694763, 0.5143446922302246, 0.5305098295211792]}, "gradients/diffeq_solver.ode_func.gradient_net.2.bias": {"_type": "histogram", "values": [2.0, 1.0, 0.0, 0.0, 0.0, 0.0, 1.0, 0.0, 1.0, 1.0, 0.0, 1.0, 1.0, 1.0, 1.0, 3.0, 0.0, 2.0, 0.0, 0.0, 2.0, 0.0, 3.0, 1.0, 2.0, 2.0, 2.0, 1.0, 1.0, 0.0, 2.0, 2.0, 2.0, 2.0, 1.0, 2.0, 4.0, 3.0, 2.0, 3.0, 9.0, 4.0, 3.0, 3.0, 4.0, 1.0, 1.0, 0.0, 3.0, 0.0, 4.0, 3.0, 1.0, 3.0, 0.0, 0.0, 2.0, 1.0, 2.0, 0.0, 2.0, 1.0, 0.0, 1.0], "bins": [-1.3817557096481323, -1.3440414667129517, -1.3063273429870605, -1.2686131000518799, -1.2308988571166992, -1.193184733390808, -1.1554704904556274, -1.1177563667297363, -1.0800421237945557, -1.042327880859375, -1.0046137571334839, -0.9668995141983032, -0.9291853308677673, -0.8914711475372314, -0.8537569046020508, -0.8160427212715149, -0.778328537940979, -0.7406143546104431, -0.7029001712799072, -0.6651859283447266, -0.6274717450141907, -0.5897575616836548, -0.5520433187484741, -0.5143291354179382, -0.47661495208740234, -0.43890076875686646, -0.4011865556240082, -0.3634723424911499, -0.325758159160614, -0.2880439758300781, -0.25032976269721985, -0.21261554956436157, -0.17490124702453613, -0.13718704879283905, -0.09947285056114197, -0.061758652329444885, -0.024044454097747803, 0.01366974413394928, 0.05138394236564636, 0.08909815549850464, 0.12681233882904053, 0.1645265370607376, 0.2022407352924347, 0.23995493352413177, 0.27766913175582886, 0.31538331508636475, 0.353097528219223, 0.3908117413520813, 0.4285259246826172, 0.4662401080131531, 0.503954291343689, 0.5416685342788696, 0.5793827176094055, 0.6170969009399414, 0.6548111438751221, 0.692525327205658, 0.7302395105361938, 0.7679536938667297, 0.8056678771972656, 0.8433821201324463, 0.8810963034629822, 0.9188104867935181, 0.9565247297286987, 0.9942389130592346, 1.0319530963897705]}, "gradients/diffeq_solver.ode_func.gradient_net.2.weight": {"_type": "histogram", "values": [2.0, 0.0, 1.0, 0.0, 2.0, 3.0, 1.0, 2.0, 3.0, 3.0, 10.0, 13.0, 14.0, 16.0, 14.0, 30.0, 46.0, 51.0, 66.0, 71.0, 122.0, 134.0, 200.0, 241.0, 330.0, 452.0, 549.0, 803.0, 1278.0, 1581.0, 1112.0, 672.0, 532.0, 352.0, 328.0, 232.0, 161.0, 152.0, 103.0, 77.0, 62.0, 40.0, 29.0, 28.0, 17.0, 19.0, 15.0, 3.0, 2.0, 3.0, 3.0, 4.0, 5.0, 4.0, 3.0, 1.0, 0.0, 0.0, 0.0, 0.0, 1.0, 0.0, 0.0, 2.0], "bins": [-0.5995098948478699, -0.5790809392929077, -0.5586519837379456, -0.5382229685783386, -0.5177940130233765, -0.4973650574684143, -0.47693610191345215, -0.45650714635849, -0.43607816100120544, -0.4156492054462433, -0.39522022008895874, -0.3747912645339966, -0.3543623089790344, -0.3339333236217499, -0.3135043680667877, -0.2930753827095032, -0.272646427154541, -0.25221747159957886, -0.2317884862422943, -0.21135953068733215, -0.1909305602312088, -0.17050158977508545, -0.1500726342201233, -0.12964366376399994, -0.10921469330787659, -0.08878572285175323, -0.06835675984621048, -0.047927793115377426, -0.027498826384544373, -0.0070698559284210205, 0.013359107077121735, 0.03378807008266449, 0.05421704053878784, 0.0746460109949112, 0.09507497400045395, 0.1155039370059967, 0.13593290746212006, 0.1563618779182434, 0.17679083347320557, 0.19721980392932892, 0.21764877438545227, 0.23807774484157562, 0.258506715297699, 0.27893567085266113, 0.2993646264076233, 0.31979361176490784, 0.34022256731987, 0.36065155267715454, 0.3810805082321167, 0.40150946378707886, 0.4219384491443634, 0.44236740469932556, 0.4627963900566101, 0.48322534561157227, 0.5036543011665344, 0.5240832567214966, 0.5445122718811035, 0.5649412274360657, 0.5853701829910278, 0.6057991981506348, 0.6262281537055969, 0.6466571092605591, 0.6670860648155212, 0.6875150203704834, 0.7079439759254456]}, "gradients/diffeq_solver.ode_func.gradient_net.0.bias": {"_type": "histogram", "values": [1.0, 0.0, 0.0, 0.0, 0.0, 1.0, 0.0, 1.0, 1.0, 0.0, 1.0, 1.0, 1.0, 1.0, 1.0, 3.0, 1.0, 3.0, 2.0, 1.0, 4.0, 1.0, 2.0, 2.0, 1.0, 1.0, 2.0, 4.0, 1.0, 2.0, 2.0, 3.0, 5.0, 4.0, 3.0, 1.0, 2.0, 4.0, 3.0, 1.0, 5.0, 2.0, 2.0, 4.0, 4.0, 3.0, 4.0, 1.0, 1.0, 2.0, 0.0, 2.0, 0.0, 0.0, 0.0, 1.0, 0.0, 0.0, 1.0, 0.0, 0.0, 0.0, 0.0, 1.0], "bins": [-1.6041407585144043, -1.5550720691680908, -1.506003499031067, -1.4569348096847534, -1.4078662395477295, -1.358797550201416, -1.3097288608551025, -1.260660171508789, -1.2115916013717651, -1.1625229120254517, -1.1134543418884277, -1.0643856525421143, -1.0153169631958008, -0.9662483930587769, -0.9171797037124634, -0.8681110739707947, -0.819042444229126, -0.7699738144874573, -0.7209051847457886, -0.6718364953994751, -0.6227678656578064, -0.5736992359161377, -0.5246305465698242, -0.4755619168281555, -0.4264932870864868, -0.3774246573448181, -0.328355997800827, -0.27928733825683594, -0.23021870851516724, -0.18115006387233734, -0.13208141922950745, -0.08301275968551636, -0.033944010734558105, 0.01512463390827179, 0.06419327855110168, 0.11326192319393158, 0.16233056783676147, 0.21139921247959137, 0.26046785712242126, 0.30953651666641235, 0.35860514640808105, 0.40767377614974976, 0.45674243569374084, 0.5058110952377319, 0.5548797249794006, 0.6039483547210693, 0.6530170440673828, 0.7020856738090515, 0.7511543035507202, 0.8002229332923889, 0.8492915630340576, 0.8983602523803711, 0.9474288821220398, 0.9964975118637085, 1.045566201210022, 1.094634771347046, 1.1437034606933594, 1.1927721500396729, 1.2418407201766968, 1.2909094095230103, 1.3399779796600342, 1.3890466690063477, 1.4381153583526611, 1.4871840476989746, 1.5362526178359985]}, "gradients/diffeq_solver.ode_func.gradient_net.0.weight": {"_type": "histogram", "values": [1.0, 0.0, 0.0, 1.0, 1.0, 0.0, 0.0, 0.0, 1.0, 1.0, 3.0, 0.0, 1.0, 3.0, 2.0, 2.0, 2.0, 8.0, 7.0, 5.0, 14.0, 10.0, 8.0, 15.0, 11.0, 17.0, 20.0, 18.0, 34.0, 22.0, 39.0, 53.0, 38.0, 39.0, 35.0, 34.0, 25.0, 13.0, 10.0, 13.0, 5.0, 8.0, 5.0, 12.0, 11.0, 6.0, 9.0, 7.0, 1.0, 5.0, 3.0, 2.0, 5.0, 1.0, 5.0, 2.0, 3.0, 0.0, 1.0, 1.0, 0.0, 0.0, 0.0, 2.0], "bins": [-2.22806715965271, -2.159353494644165, -2.090640068054199, -2.0219264030456543, -1.953212857246399, -1.8844993114471436, -1.8157856464385986, -1.7470721006393433, -1.678358554840088, -1.6096450090408325, -1.5409314632415771, -1.4722177982330322, -1.4035042524337769, -1.3347907066345215, -1.2660770416259766, -1.1973634958267212, -1.1286499500274658, -1.0599364042282104, -0.9912227988243103, -0.9225091934204102, -0.8537956476211548, -0.7850821018218994, -0.7163684964179993, -0.6476548910140991, -0.5789413452148438, -0.5102277994155884, -0.44151419401168823, -0.3728006184101105, -0.3040870428085327, -0.23537346720695496, -0.1666598916053772, -0.09794631600379944, -0.02923297882080078, 0.03948059678077698, 0.10819417238235474, 0.1769077479839325, 0.24562132358551025, 0.314334899187088, 0.38304847478866577, 0.45176205039024353, 0.5204756259918213, 0.5891891717910767, 0.6579027771949768, 0.726616382598877, 0.7953299283981323, 0.8640434741973877, 0.9327570796012878, 1.001470685005188, 1.0701842308044434, 1.1388977766036987, 1.207611322402954, 1.276324987411499, 1.3450385332107544, 1.4137520790100098, 1.4824657440185547, 1.55117928981781, 1.6198928356170654, 1.6886063814163208, 1.7573199272155762, 1.826033592224121, 1.8947471380233765, 1.9634606838226318, 2.0321743488311768, 2.1008877754211426, 2.1696014404296875]}, "gradients/encoder_z0.transform_z0.2.bias": {"_type": "histogram", "values": [1.0, 0.0, 0.0, 2.0, 0.0, 0.0, 0.0, 0.0, 0.0, 1.0, 0.0, 0.0, 0.0, 0.0, 0.0, 0.0, 0.0, 0.0, 2.0, 0.0, 1.0, 0.0, 0.0, 0.0, 1.0, 1.0, 0.0, 0.0, 0.0, 0.0, 0.0, 0.0, 0.0, 0.0, 0.0, 0.0, 0.0, 0.0, 0.0, 0.0, 0.0, 0.0, 0.0, 0.0, 0.0, 0.0, 0.0, 0.0, 0.0, 0.0, 0.0, 0.0, 0.0, 1.0, 0.0, 0.0, 0.0, 1.0, 0.0, 0.0, 0.0, 0.0, 0.0, 1.0], "bins": [-0.36419063806533813, -0.33764511346817017, -0.3110995888710022, -0.28455406427383423, -0.25800853967666626, -0.2314630150794983, -0.20491749048233032, -0.17837196588516235, -0.15182644128799438, -0.12528091669082642, -0.09873539209365845, -0.07218986749649048, -0.04564434289932251, -0.01909881830215454, 0.007446706295013428, 0.033992230892181396, 0.060537755489349365, 0.08708328008651733, 0.1136288046836853, 0.14017432928085327, 0.16671985387802124, 0.1932653784751892, 0.21981090307235718, 0.24635642766952515, 0.2729019522666931, 0.2994474768638611, 0.32599300146102905, 0.352538526058197, 0.379084050655365, 0.40562957525253296, 0.4321750998497009, 0.4587206244468689, 0.48526620864868164, 0.5118117332458496, 0.5383572578430176, 0.5649027824401855, 0.5914483070373535, 0.6179938316345215, 0.6445393562316895, 0.6710848808288574, 0.6976304054260254, 0.7241759300231934, 0.7507214546203613, 0.7772669792175293, 0.8038125038146973, 0.8303580284118652, 0.8569035530090332, 0.8834490776062012, 0.9099946022033691, 0.9365401268005371, 0.9630856513977051, 0.989631175994873, 1.016176700592041, 1.042722225189209, 1.069267749786377, 1.095813274383545, 1.122358798980713, 1.1489043235778809, 1.1754498481750488, 1.2019953727722168, 1.2285408973693848, 1.2550864219665527, 1.2816319465637207, 1.3081774711608887, 1.3347229957580566]}, "gradients/encoder_z0.transform_z0.2.weight": {"_type": "histogram", "values": [1.0, 0.0, 1.0, 0.0, 0.0, 3.0, 0.0, 2.0, 2.0, 2.0, 4.0, 4.0, 2.0, 3.0, 2.0, 4.0, 2.0, 5.0, 4.0, 10.0, 12.0, 14.0, 12.0, 18.0, 32.0, 41.0, 43.0, 51.0, 104.0, 85.0, 104.0, 112.0, 102.0, 98.0, 77.0, 51.0, 36.0, 34.0, 16.0, 14.0, 11.0, 15.0, 5.0, 5.0, 6.0, 4.0, 4.0, 7.0, 5.0, 4.0, 4.0, 2.0, 3.0, 3.0, 0.0, 3.0, 4.0, 1.0, 1.0, 3.0, 1.0, 1.0, 0.0, 1.0], "bins": [-0.9257745742797852, -0.8961362838745117, -0.8664979934692383, -0.8368597030639648, -0.8072214126586914, -0.777583122253418, -0.7479448914527893, -0.7183066010475159, -0.6886683106422424, -0.659030020236969, -0.6293917298316956, -0.5997534394264221, -0.5701152086257935, -0.54047691822052, -0.5108386278152466, -0.48120033740997314, -0.4515620470046997, -0.42192375659942627, -0.39228546619415283, -0.3626472055912018, -0.33300891518592834, -0.3033706247806549, -0.27373236417770386, -0.24409407377243042, -0.21445578336715698, -0.18481749296188354, -0.1551792174577713, -0.12554094195365906, -0.09590265154838562, -0.06626436114311218, -0.03662608563899994, -0.006987810134887695, 0.022650420665740967, 0.05228870362043381, 0.08192698657512665, 0.11156526952981949, 0.14120355248451233, 0.17084184288978577, 0.200480118393898, 0.23011839389801025, 0.2597566843032837, 0.28939497470855713, 0.31903326511383057, 0.3486715257167816, 0.37830981612205505, 0.4079481065273285, 0.43758636713027954, 0.467224657535553, 0.4968629479408264, 0.5265012383460999, 0.5561395287513733, 0.5857778191566467, 0.6154160499572754, 0.6450543403625488, 0.6746926307678223, 0.7043309211730957, 0.7339692115783691, 0.7636075019836426, 0.793245792388916, 0.8228840827941895, 0.8525223731994629, 0.8821606636047363, 0.911798894405365, 0.9414371848106384, 0.9710754752159119]}, "gradients/encoder_z0.transform_z0.0.bias": {"_type": "histogram", "values": [1.0, 0.0, 0.0, 0.0, 0.0, 0.0, 0.0, 0.0, 1.0, 0.0, 0.0, 0.0, 2.0, 1.0, 0.0, 0.0, 1.0, 1.0, 0.0, 1.0, 2.0, 1.0, 3.0, 1.0, 2.0, 3.0, 4.0, 2.0, 2.0, 1.0, 2.0, 2.0, 3.0, 3.0, 2.0, 3.0, 1.0, 1.0, 1.0, 2.0, 0.0, 3.0, 2.0, 3.0, 6.0, 5.0, 4.0, 0.0, 4.0, 0.0, 3.0, 0.0, 1.0, 2.0, 2.0, 2.0, 2.0, 3.0, 2.0, 2.0, 1.0, 1.0, 1.0, 2.0], "bins": [-0.5844510793685913, -0.5697171688079834, -0.5549832582473755, -0.5402492880821228, -0.5255153775215149, -0.510781466960907, -0.4960475265979767, -0.4813135862350464, -0.4665796756744385, -0.45184576511383057, -0.43711182475090027, -0.42237788438796997, -0.40764397382736206, -0.39291006326675415, -0.37817612290382385, -0.36344218254089355, -0.34870827198028564, -0.33397436141967773, -0.31924042105674744, -0.30450648069381714, -0.28977257013320923, -0.2750386595726013, -0.260304719209671, -0.24557079374790192, -0.2308368682861328, -0.2161029428243637, -0.2013690173625946, -0.1866350919008255, -0.1719011664390564, -0.1571672409772873, -0.1424333155155182, -0.12769939005374908, -0.11296546459197998, -0.09823153913021088, -0.08349761366844177, -0.06876368820667267, -0.054029762744903564, -0.03929583728313446, -0.024561911821365356, -0.009827986359596252, 0.0049059391021728516, 0.019639864563941956, 0.03437379002571106, 0.049107715487480164, 0.06384164094924927, 0.07857556641101837, 0.09330949187278748, 0.10804341733455658, 0.12277734279632568, 0.1375112682580948, 0.1522451937198639, 0.166979119181633, 0.1817130446434021, 0.1964469701051712, 0.2111808955669403, 0.2259148210287094, 0.24064874649047852, 0.2553826570510864, 0.2701165974140167, 0.284850537776947, 0.29958444833755493, 0.31431835889816284, 0.32905229926109314, 0.34378623962402344, 0.35852015018463135]}, "gradients/encoder_z0.transform_z0.0.weight": {"_type": "histogram", "values": [1.0, 0.0, 0.0, 0.0, 0.0, 1.0, 1.0, 0.0, 0.0, 1.0, 0.0, 3.0, 2.0, 3.0, 6.0, 8.0, 9.0, 4.0, 11.0, 19.0, 18.0, 23.0, 30.0, 34.0, 57.0, 81.0, 148.0, 179.0, 239.0, 367.0, 517.0, 664.0, 541.0, 335.0, 176.0, 144.0, 115.0, 78.0, 60.0, 32.0, 17.0, 17.0, 15.0, 6.0, 9.0, 6.0, 9.0, 2.0, 1.0, 5.0, 1.0, 0.0, 2.0, 1.0, 0.0, 0.0, 0.0, 1.0, 0.0, 0.0, 0.0, 0.0, 0.0, 1.0], "bins": [-0.7302370071411133, -0.7069269418716431, -0.6836168766021729, -0.6603067517280579, -0.6369966864585876, -0.6136866211891174, -0.5903764963150024, -0.5670664310455322, -0.543756365776062, -0.5204463005065918, -0.4971362054347992, -0.4738261103630066, -0.4505160450935364, -0.42720597982406616, -0.40389588475227356, -0.38058578968048096, -0.35727572441101074, -0.3339656591415405, -0.3106555640697479, -0.2873454689979553, -0.2640354037284851, -0.2407253235578537, -0.2174152433872223, -0.19410516321659088, -0.17079508304595947, -0.14748500287532806, -0.12417492270469666, -0.10086484253406525, -0.07755476236343384, -0.05424468219280243, -0.03093460202217102, -0.007624521851539612, 0.015685617923736572, 0.03899569809436798, 0.06230577826499939, 0.0856158584356308, 0.10892593860626221, 0.13223601877689362, 0.15554609894752502, 0.17885617911815643, 0.20216625928878784, 0.22547633945941925, 0.24878641963005066, 0.27209651470184326, 0.2954065799713135, 0.3187166452407837, 0.3420267403125763, 0.3653368353843689, 0.3886469006538391, 0.4119569659233093, 0.43526706099510193, 0.45857715606689453, 0.48188722133636475, 0.505197286605835, 0.5285073518753052, 0.5518174767494202, 0.5751275420188904, 0.5984376072883606, 0.6217477321624756, 0.6450577974319458, 0.668367862701416, 0.6916779279708862, 0.7149879932403564, 0.7382981181144714, 0.7616081833839417]}, "gradients/encoder_z0.GRU_update.new_state_net.2.bias": {"_type": "histogram", "values": [2.0, 0.0, 0.0, 0.0, 0.0, 1.0, 1.0, 0.0, 0.0, 1.0, 0.0, 0.0, 0.0, 0.0, 2.0, 1.0, 0.0, 2.0, 1.0, 1.0, 1.0, 2.0, 0.0, 1.0, 4.0, 2.0, 0.0, 1.0, 1.0, 5.0, 0.0, 0.0, 1.0, 1.0, 1.0, 0.0, 2.0, 0.0, 0.0, 1.0, 0.0, 0.0, 0.0, 0.0, 1.0, 1.0, 1.0, 0.0, 1.0, 0.0, 0.0, 0.0, 0.0, 0.0, 0.0, 0.0, 0.0, 0.0, 0.0, 0.0, 0.0, 0.0, 0.0, 1.0], "bins": [-4.177558422088623, -4.005555152893066, -3.8335514068603516, -3.661548137664795, -3.48954439163208, -3.3175411224365234, -3.1455376148223877, -2.973534107208252, -2.801530599594116, -2.6295270919799805, -2.4575235843658447, -2.285520076751709, -2.1135168075561523, -1.941513180732727, -1.7695097923278809, -1.5975062847137451, -1.4255027770996094, -1.2534992694854736, -1.081495761871338, -0.9094923734664917, -0.737488865852356, -0.5654853582382202, -0.393481969833374, -0.22147846221923828, -0.04947519302368164, 0.12252828478813171, 0.29453176259994507, 0.46653521060943604, 0.6385387182235718, 0.8105422258377075, 0.9825456142425537, 1.1545491218566895, 1.326552391052246, 1.4985558986663818, 1.6705594062805176, 1.8425627946853638, 2.014566421508789, 2.1865696907043457, 2.3585731983184814, 2.530576705932617, 2.702580451965332, 2.8745839595794678, 3.0465874671936035, 3.21859073638916, 3.390594482421875, 3.5625977516174316, 3.7346012592315674, 3.906604766845703, 4.07860803604126, 4.250611305236816, 4.422615051269531, 4.594618320465088, 4.766622066497803, 4.938625335693359, 5.110629081726074, 5.282632350921631, 5.4546356201171875, 5.626638889312744, 5.798642635345459, 5.970645904541016, 6.1426496505737305, 6.314652919769287, 6.486656188964844, 6.658659934997559, 6.830663681030273]}, "gradients/encoder_z0.GRU_update.new_state_net.2.weight": {"_type": "histogram", "values": [2.0, 0.0, 2.0, 0.0, 2.0, 0.0, 2.0, 2.0, 4.0, 7.0, 2.0, 4.0, 14.0, 19.0, 18.0, 27.0, 19.0, 50.0, 53.0, 72.0, 88.0, 155.0, 264.0, 481.0, 1089.0, 661.0, 329.0, 181.0, 121.0, 71.0, 72.0, 40.0, 33.0, 31.0, 21.0, 13.0, 8.0, 14.0, 7.0, 4.0, 2.0, 3.0, 1.0, 0.0, 5.0, 2.0, 0.0, 0.0, 1.0, 1.0, 2.0, 0.0, 0.0, 0.0, 0.0, 0.0, 0.0, 0.0, 0.0, 0.0, 0.0, 0.0, 0.0, 1.0], "bins": [-2.8576138019561768, -2.741948127746582, -2.6262824535369873, -2.5106167793273926, -2.394951343536377, -2.2792856693267822, -2.1636199951171875, -2.0479543209075928, -1.9322887659072876, -1.8166230916976929, -1.7009575366973877, -1.585291862487793, -1.4696261882781982, -1.353960633277893, -1.2382949590682983, -1.1226294040679932, -1.0069637298583984, -0.8912981152534485, -0.7756325006484985, -0.6599668264389038, -0.5443012118339539, -0.4286355972290039, -0.3129699230194092, -0.19730430841445923, -0.08163857460021973, 0.03402705490589142, 0.14969268441200256, 0.2653583288192749, 0.38102394342422485, 0.4966895580291748, 0.6123552322387695, 0.7280208468437195, 0.843686580657959, 0.9593521952629089, 1.0750178098678589, 1.1906834840774536, 1.3063490390777588, 1.4220147132873535, 1.5376803874969482, 1.653346061706543, 1.7690114974975586, 1.8846771717071533, 2.000342845916748, 2.1160082817077637, 2.2316739559173584, 2.347339630126953, 2.463005304336548, 2.5786709785461426, 2.6943366527557373, 2.810002326965332, 2.9256680011749268, 3.0413336753845215, 3.156999111175537, 3.272664785385132, 3.3883304595947266, 3.5039961338043213, 3.619661808013916, 3.7353274822235107, 3.8509931564331055, 3.966658592224121, 4.082324504852295, 4.1979899406433105, 4.313655853271484, 4.4293212890625, 4.544986724853516]}, "gradients/encoder_z0.GRU_update.new_state_net.0.bias": {"_type": "histogram", "values": [1.0, 0.0, 0.0, 0.0, 0.0, 0.0, 2.0, 0.0, 0.0, 1.0, 1.0, 0.0, 2.0, 0.0, 1.0, 1.0, 2.0, 3.0, 1.0, 2.0, 1.0, 1.0, 2.0, 1.0, 1.0, 2.0, 3.0, 2.0, 2.0, 3.0, 7.0, 1.0, 4.0, 3.0, 4.0, 1.0, 4.0, 1.0, 1.0, 4.0, 3.0, 3.0, 2.0, 2.0, 0.0, 1.0, 5.0, 2.0, 0.0, 1.0, 0.0, 3.0, 1.0, 2.0, 1.0, 3.0, 0.0, 0.0, 0.0, 0.0, 2.0, 1.0, 1.0, 2.0], "bins": [-4.323614597320557, -4.204031944274902, -4.08444881439209, -3.9648661613464355, -3.845283269882202, -3.7257003784179688, -3.6061177253723145, -3.486534833908081, -3.3669519424438477, -3.2473690509796143, -3.127786159515381, -3.0082035064697266, -2.888620615005493, -2.7690377235412598, -2.6494550704956055, -2.529872179031372, -2.4102892875671387, -2.2907063961029053, -2.171123504638672, -2.0515408515930176, -1.9319579601287842, -1.8123750686645508, -1.692792296409607, -1.573209524154663, -1.4536266326904297, -1.3340437412261963, -1.2144609689712524, -1.0948781967163086, -0.9752953052520752, -0.8557124733924866, -0.736129641532898, -0.6165468096733093, -0.4969639778137207, -0.3773811459541321, -0.25779831409454346, -0.13821548223495483, -0.01863265037536621, 0.10095018148422241, 0.22053301334381104, 0.34011584520339966, 0.4596986770629883, 0.5792815089225769, 0.6988643407821655, 0.8184471726417542, 0.9380300045013428, 1.0576128959655762, 1.17719566822052, 1.2967784404754639, 1.4163613319396973, 1.5359442234039307, 1.6555269956588745, 1.7751097679138184, 1.8946926593780518, 2.014275550842285, 2.1338582038879395, 2.253441095352173, 2.3730239868164062, 2.4926068782806396, 2.612189769744873, 2.7317724227905273, 2.8513553142547607, 2.970938205718994, 3.0905208587646484, 3.210103750228882, 3.3296866416931152]}, "gradients/encoder_z0.GRU_update.new_state_net.0.weight": {"_type": "histogram", "values": [3.0, 0.0, 0.0, 0.0, 0.0, 0.0, 6.0, 0.0, 0.0, 3.0, 3.0, 0.0, 6.0, 1.0, 3.0, 3.0, 6.0, 9.0, 6.0, 6.0, 5.0, 7.0, 8.0, 11.0, 10.0, 14.0, 25.0, 24.0, 29.0, 41.0, 72.0, 78.0, 127.0, 165.0, 400.0, 1062.0, 1418.0, 442.0, 175.0, 103.0, 79.0, 59.0, 38.0, 28.0, 12.0, 14.0, 23.0, 9.0, 7.0, 6.0, 1.0, 12.0, 4.0, 7.0, 3.0, 9.0, 0.0, 0.0, 0.0, 0.0, 6.0, 3.0, 3.0, 6.0], "bins": [-4.323615074157715, -4.2040324211120605, -4.084449291229248, -3.9648666381835938, -3.8452837467193604, -3.725700855255127, -3.6061179637908936, -3.48653507232666, -3.366952419281006, -3.2473695278167725, -3.127786636352539, -3.0082039833068848, -2.8886210918426514, -2.769038200378418, -2.6494553089141846, -2.529872417449951, -2.4102895259857178, -2.2907066345214844, -2.171123743057251, -2.0515408515930176, -1.9319581985473633, -1.8123753070831299, -1.6927924156188965, -1.573209524154663, -1.4536266326904297, -1.3340437412261963, -1.2144609689712524, -1.094878077507019, -0.9752952456474304, -0.8557124137878418, -0.7361295223236084, -0.6165466904640198, -0.4969639778137207, -0.3773811459541321, -0.25779828429222107, -0.13821542263031006, -0.018632590770721436, 0.10095024108886719, 0.22053313255310059, 0.3401159644126892, 0.4596986770629883, 0.5792815089225769, 0.6988643407821655, 0.8184472322463989, 0.9380300641059875, 1.0576128959655762, 1.1771957874298096, 1.296778678894043, 1.4163615703582764, 1.5359444618225098, 1.6555272340774536, 1.775110125541687, 1.8946928977966309, 2.0142757892608643, 2.1338586807250977, 2.253441572189331, 2.3730244636535645, 2.492607355117798, 2.6121902465820312, 2.7317728996276855, 2.851355791091919, 2.9709386825561523, 3.0905215740203857, 3.210104465484619, 3.3296871185302734]}, "gradients/encoder_z0.GRU_update.reset_gate.2.bias": {"_type": "histogram", "values": [1.0, 0.0, 0.0, 1.0, 0.0, 0.0, 0.0, 1.0, 0.0, 1.0, 2.0, 0.0, 0.0, 0.0, 0.0, 0.0, 0.0, 0.0, 1.0, 1.0, 1.0, 0.0, 2.0, 0.0, 0.0, 0.0, 1.0, 1.0, 1.0, 1.0, 1.0, 0.0, 0.0, 0.0, 1.0, 0.0, 0.0, 0.0, 0.0, 0.0, 0.0, 0.0, 0.0, 0.0, 1.0, 0.0, 0.0, 1.0, 0.0, 0.0, 0.0, 0.0, 0.0, 0.0, 0.0, 0.0, 0.0, 0.0, 0.0, 0.0, 0.0, 0.0, 0.0, 1.0], "bins": [-0.3006289303302765, -0.2891738712787628, -0.27771884202957153, -0.26626378297805786, -0.2548087239265442, -0.2433536946773529, -0.23189863562583923, -0.22044359147548676, -0.20898854732513428, -0.1975335031747818, -0.18607844412326813, -0.17462339997291565, -0.16316835582256317, -0.1517133116722107, -0.14025825262069702, -0.12880320847034454, -0.11734814941883087, -0.1058930978178978, -0.09443805366754532, -0.08298300206661224, -0.07152795791625977, -0.06007290631532669, -0.048617854714393616, -0.03716281056404114, -0.025707751512527466, -0.014252702705562115, -0.0027976538985967636, 0.008657395839691162, 0.02011244371533394, 0.031567491590976715, 0.04302254319190979, 0.05447758734226227, 0.06593263149261475, 0.07738768309354782, 0.0888427272439003, 0.10029777884483337, 0.11175282299518585, 0.12320787459611893, 0.134662926197052, 0.14611797034740448, 0.15757301449775696, 0.16902805864810944, 0.1804831176996231, 0.19193816184997559, 0.20339320600032806, 0.21484825015068054, 0.2263033092021942, 0.2377583533525467, 0.24921341240406036, 0.26066845655441284, 0.2721235156059265, 0.2835785746574402, 0.29503360390663147, 0.30648866295814514, 0.3179436922073364, 0.3293987512588501, 0.34085381031036377, 0.35230886936187744, 0.3637638986110687, 0.3752189576625824, 0.38667401671409607, 0.39812904596328735, 0.409584105014801, 0.4210391640663147, 0.432494193315506]}, "gradients/encoder_z0.GRU_update.reset_gate.2.weight": {"_type": "histogram", "values": [1.0, 0.0, 0.0, 0.0, 4.0, 1.0, 1.0, 1.0, 1.0, 0.0, 4.0, 2.0, 5.0, 4.0, 1.0, 5.0, 7.0, 8.0, 18.0, 20.0, 18.0, 17.0, 27.0, 20.0, 23.0, 34.0, 41.0, 68.0, 81.0, 128.0, 170.0, 307.0, 286.0, 181.0, 107.0, 69.0, 74.0, 48.0, 25.0, 21.0, 24.0, 31.0, 18.0, 20.0, 16.0, 12.0, 15.0, 9.0, 5.0, 5.0, 2.0, 2.0, 1.0, 2.0, 4.0, 0.0, 0.0, 1.0, 1.0, 0.0, 1.0, 0.0, 1.0, 2.0], "bins": [-0.36485788226127625, -0.3534373641014099, -0.3420168161392212, -0.33059629797935486, -0.31917575001716614, -0.3077552318572998, -0.2963346838951111, -0.28491416573524475, -0.2734936475753784, -0.2620731294155121, -0.25065258145332336, -0.23923206329345703, -0.2278115302324295, -0.21639099717140198, -0.20497046411037445, -0.19354993104934692, -0.1821293979883194, -0.17070886492729187, -0.15928833186626434, -0.14786779880523682, -0.13644728064537048, -0.12502674758434296, -0.11360621452331543, -0.1021856889128685, -0.09076514840126038, -0.07934461534023285, -0.06792408972978592, -0.05650355666875839, -0.045083027333021164, -0.033662497997283936, -0.02224196493625641, -0.010821439325809479, 0.0005990862846374512, 0.012019616551697254, 0.023440146818757057, 0.034860678017139435, 0.04628120735287666, 0.05770173668861389, 0.06912226974964142, 0.08054279536008835, 0.09196332097053528, 0.1033838540315628, 0.11480437964200974, 0.12622490525245667, 0.1376454383134842, 0.14906597137451172, 0.16048650443553925, 0.17190703749656677, 0.1833275705575943, 0.19474810361862183, 0.20616863667964935, 0.21758916974067688, 0.2290096879005432, 0.24043022096157074, 0.25185075402259827, 0.2632712721824646, 0.2746918201446533, 0.28611233830451965, 0.2975328862667084, 0.3089534044265747, 0.3203739523887634, 0.33179447054862976, 0.3432149887084961, 0.3546355366706848, 0.36605605483055115]}, "gradients/encoder_z0.GRU_update.reset_gate.0.bias": {"_type": "histogram", "values": [1.0, 1.0, 0.0, 1.0, 1.0, 0.0, 0.0, 0.0, 1.0, 4.0, 1.0, 2.0, 4.0, 0.0, 4.0, 2.0, 2.0, 2.0, 0.0, 3.0, 0.0, 1.0, 4.0, 1.0, 2.0, 0.0, 2.0, 6.0, 0.0, 4.0, 4.0, 2.0, 2.0, 1.0, 3.0, 3.0, 1.0, 1.0, 2.0, 4.0, 3.0, 1.0, 3.0, 2.0, 1.0, 1.0, 2.0, 0.0, 3.0, 1.0, 0.0, 1.0, 0.0, 1.0, 1.0, 1.0, 0.0, 0.0, 1.0, 2.0, 1.0, 0.0, 2.0, 1.0], "bins": [-0.13623926043510437, -0.1318032443523407, -0.12736722826957703, -0.12293121218681335, -0.11849519610404968, -0.11405918002128601, -0.10962316393852234, -0.10518714785575867, -0.100751131772995, -0.09631511569023132, -0.09187909960746765, -0.08744308352470398, -0.08300706744194031, -0.07857105135917664, -0.07413503527641296, -0.06969901919364929, -0.06526300311088562, -0.06082698702812195, -0.056390970945358276, -0.051954954862594604, -0.04751893877983093, -0.04308292269706726, -0.03864690661430359, -0.03421089053153992, -0.029774874448776245, -0.025338858366012573, -0.0209028422832489, -0.01646682620048523, -0.012030810117721558, -0.007594794034957886, -0.003158777952194214, 0.001277238130569458, 0.00571325421333313, 0.010149270296096802, 0.014585286378860474, 0.019021302461624146, 0.023457318544387817, 0.02789333462715149, 0.03232935070991516, 0.03676536679267883, 0.041201382875442505, 0.04563739895820618, 0.05007341504096985, 0.05450943112373352, 0.05894544720649719, 0.06338146328926086, 0.06781747937202454, 0.07225349545478821, 0.07668951153755188, 0.08112552762031555, 0.08556154370307922, 0.0899975597858429, 0.09443357586860657, 0.09886959195137024, 0.10330560803413391, 0.10774162411689758, 0.11217764019966125, 0.11661365628242493, 0.1210496723651886, 0.12548568844795227, 0.12992170453071594, 0.13435772061347961, 0.1387937366962433, 0.14322975277900696, 0.14766576886177063]}, "gradients/encoder_z0.GRU_update.reset_gate.0.weight": {"_type": "histogram", "values": [2.0, 0.0, 0.0, 3.0, 1.0, 5.0, 4.0, 2.0, 3.0, 8.0, 7.0, 7.0, 10.0, 22.0, 14.0, 19.0, 22.0, 24.0, 27.0, 29.0, 34.0, 75.0, 55.0, 77.0, 102.0, 115.0, 163.0, 233.0, 381.0, 597.0, 827.0, 503.0, 284.0, 212.0, 151.0, 104.0, 76.0, 65.0, 48.0, 51.0, 37.0, 23.0, 23.0, 20.0, 34.0, 25.0, 12.0, 6.0, 6.0, 5.0, 5.0, 3.0, 4.0, 7.0, 6.0, 4.0, 7.0, 1.0, 4.0, 2.0, 0.0, 2.0, 0.0, 2.0], "bins": [-0.16758030652999878, -0.1620475798845291, -0.15651486814022064, -0.15098214149475098, -0.1454494148492813, -0.13991670310497284, -0.13438397645950317, -0.1288512647151947, -0.12331853806972504, -0.11778581887483597, -0.1122530922293663, -0.10672037303447723, -0.10118765383958817, -0.0956549346446991, -0.09012220799922943, -0.08458948880434036, -0.0790567621588707, -0.07352404296398163, -0.06799131631851196, -0.062458597123622894, -0.056925877928733826, -0.05139315500855446, -0.04586043208837509, -0.04032771289348602, -0.03479498624801636, -0.02926226519048214, -0.023729544132947922, -0.018196821212768555, -0.012664100155234337, -0.007131379097700119, -0.001598656177520752, 0.003934063017368317, 0.009466782212257385, 0.014999503269791603, 0.02053222432732582, 0.026064947247505188, 0.03159766644239426, 0.037130389362573624, 0.04266311228275299, 0.04819583147764206, 0.05372855067253113, 0.059261273592710495, 0.06479399651288986, 0.07032671570777893, 0.075859434902668, 0.08139215409755707, 0.08692488074302673, 0.0924575999379158, 0.09799032658338547, 0.10352304577827454, 0.1090557724237442, 0.11458849161863327, 0.12012121081352234, 0.125653937458992, 0.13118666410446167, 0.13671937584877014, 0.1422521024942398, 0.14778482913970947, 0.15331754088401794, 0.1588502675294876, 0.16438299417495728, 0.16991570591926575, 0.1754484325647354, 0.18098115921020508, 0.18651387095451355]}, "gradients/encoder_z0.GRU_update.update_gate.2.bias": {"_type": "histogram", "values": [1.0, 0.0, 1.0, 0.0, 0.0, 0.0, 0.0, 0.0, 0.0, 0.0, 0.0, 0.0, 0.0, 0.0, 0.0, 0.0, 0.0, 0.0, 0.0, 0.0, 0.0, 0.0, 0.0, 0.0, 0.0, 1.0, 1.0, 0.0, 3.0, 2.0, 7.0, 0.0, 1.0, 0.0, 0.0, 0.0, 0.0, 0.0, 0.0, 0.0, 1.0, 0.0, 0.0, 0.0, 0.0, 0.0, 0.0, 0.0, 0.0, 0.0, 0.0, 0.0, 0.0, 0.0, 0.0, 0.0, 0.0, 1.0, 0.0, 0.0, 0.0, 0.0, 0.0, 1.0], "bins": [-3.2783007621765137, -3.1696691513061523, -3.06103777885437, -2.952406167984009, -2.8437745571136475, -2.7351431846618652, -2.626511573791504, -2.5178799629211426, -2.4092485904693604, -2.300616979598999, -2.191985607147217, -2.0833539962768555, -1.9747225046157837, -1.866091012954712, -1.7574594020843506, -1.6488279104232788, -1.5401962995529175, -1.4315648078918457, -1.3229331970214844, -1.2143017053604126, -1.1056702136993408, -0.9970386624336243, -0.8884071111679077, -0.7797756195068359, -0.6711440086364746, -0.5625124573707581, -0.4538809657096863, -0.3452494144439697, -0.23661789298057556, -0.1279863715171814, -0.019354820251464844, 0.08927667140960693, 0.1979081630706787, 0.3065396845340729, 0.41517120599746704, 0.5238027572631836, 0.6324342489242554, 0.7410658001899719, 0.8496973514556885, 0.9583288431167603, 1.066960334777832, 1.1755918264389038, 1.2842234373092651, 1.392854928970337, 1.5014864206314087, 1.6101179122924805, 1.7187495231628418, 1.8273810148239136, 1.936012625694275, 2.0446441173553467, 2.153275728225708, 2.2619071006774902, 2.3705387115478516, 2.479170322418213, 2.587801933288574, 2.6964333057403564, 2.8050649166107178, 2.913696527481079, 3.0223278999328613, 3.1309595108032227, 3.239591121673584, 3.348222494125366, 3.4568541049957275, 3.5654854774475098, 3.674117088317871]}, "gradients/encoder_z0.GRU_update.update_gate.2.weight": {"_type": "histogram", "values": [3.0, 0.0, 2.0, 2.0, 0.0, 1.0, 8.0, 7.0, 4.0, 4.0, 6.0, 3.0, 9.0, 8.0, 14.0, 9.0, 9.0, 8.0, 7.0, 10.0, 11.0, 12.0, 18.0, 10.0, 16.0, 19.0, 18.0, 34.0, 75.0, 194.0, 1045.0, 160.0, 42.0, 28.0, 10.0, 15.0, 15.0, 15.0, 11.0, 12.0, 8.0, 13.0, 11.0, 8.0, 12.0, 9.0, 5.0, 13.0, 7.0, 8.0, 6.0, 3.0, 3.0, 4.0, 5.0, 2.0, 2.0, 3.0, 2.0, 1.0, 0.0, 0.0, 0.0, 1.0], "bins": [-2.797027826309204, -2.704824447631836, -2.6126208305358887, -2.5204172134399414, -2.4282138347625732, -2.336010456085205, -2.243806838989258, -2.1516032218933105, -2.0593998432159424, -1.9671963453292847, -1.874992847442627, -1.7827893495559692, -1.6905858516693115, -1.5983823537826538, -1.506178855895996, -1.4139753580093384, -1.3217718601226807, -1.229568362236023, -1.1373648643493652, -1.0451613664627075, -0.9529578685760498, -0.8607543706893921, -0.7685508728027344, -0.6763473749160767, -0.584143877029419, -0.49194037914276123, -0.3997368812561035, -0.3075333833694458, -0.21532988548278809, -0.12312638759613037, -0.030922889709472656, 0.06128060817718506, 0.15348386764526367, 0.2456873655319214, 0.3378908634185791, 0.4300943613052368, 0.5222978591918945, 0.6145013570785522, 0.70670485496521, 0.7989083528518677, 0.8911118507385254, 0.9833153486251831, 1.0755188465118408, 1.1677223443984985, 1.2599258422851562, 1.352129340171814, 1.4443328380584717, 1.5365363359451294, 1.628739833831787, 1.7209433317184448, 1.8131468296051025, 1.9053503274917603, 1.997553825378418, 2.0897574424743652, 2.1819608211517334, 2.2741641998291016, 2.366367816925049, 2.458571434020996, 2.5507748126983643, 2.6429781913757324, 2.7351818084716797, 2.827385425567627, 2.919588804244995, 3.0117921829223633, 3.1039958000183105]}, "gradients/encoder_z0.GRU_update.update_gate.0.bias": {"_type": "histogram", "values": [1.0, 0.0, 0.0, 1.0, 0.0, 1.0, 1.0, 0.0, 0.0, 0.0, 0.0, 1.0, 2.0, 0.0, 2.0, 2.0, 1.0, 0.0, 2.0, 3.0, 3.0, 1.0, 2.0, 1.0, 3.0, 5.0, 1.0, 6.0, 2.0, 2.0, 4.0, 3.0, 4.0, 3.0, 5.0, 1.0, 1.0, 3.0, 3.0, 3.0, 2.0, 1.0, 5.0, 0.0, 1.0, 3.0, 3.0, 1.0, 2.0, 2.0, 2.0, 1.0, 0.0, 1.0, 0.0, 1.0, 0.0, 0.0, 0.0, 0.0, 1.0, 0.0, 0.0, 1.0], "bins": [-1.6578357219696045, -1.6040221452713013, -1.5502084493637085, -1.4963948726654053, -1.4425811767578125, -1.3887676000595093, -1.334954023361206, -1.2811403274536133, -1.2273266315460205, -1.1735130548477173, -1.1196993589401245, -1.0658857822418213, -1.0120720863342285, -0.9582585096359253, -0.9044448733329773, -0.8506312370300293, -0.7968176603317261, -0.7430040240287781, -0.6891903877258301, -0.6353768110275269, -0.5815631151199341, -0.5277495384216309, -0.47393590211868286, -0.42012226581573486, -0.36630868911743164, -0.31249505281448364, -0.25868141651153564, -0.20486781001091003, -0.15105417370796204, -0.09724053740501404, -0.04342693090438843, 0.01038670539855957, 0.06420040130615234, 0.11801403015851974, 0.17182765901088715, 0.22564128041267395, 0.27945491671562195, 0.33326855301856995, 0.38708215951919556, 0.44089579582214355, 0.49470949172973633, 0.5485231280326843, 0.6023367643356323, 0.6561503410339355, 0.7099640369415283, 0.7637776136398315, 0.8175912499427795, 0.8714048862457275, 0.9252184629440308, 0.9790320992469788, 1.0328457355499268, 1.08665931224823, 1.1404730081558228, 1.194286584854126, 1.2481002807617188, 1.301913857460022, 1.3557274341583252, 1.4095410108566284, 1.4633547067642212, 1.5171682834625244, 1.5709819793701172, 1.6247955560684204, 1.6786091327667236, 1.7324228286743164, 1.7862365245819092]}, "gradients/encoder_z0.GRU_update.update_gate.0.weight": {"_type": "histogram", "values": [1.0, 0.0, 0.0, 1.0, 1.0, 5.0, 0.0, 2.0, 4.0, 1.0, 9.0, 0.0, 1.0, 3.0, 8.0, 13.0, 8.0, 25.0, 21.0, 19.0, 30.0, 41.0, 43.0, 65.0, 81.0, 120.0, 180.0, 300.0, 597.0, 1160.0, 648.0, 359.0, 211.0, 135.0, 113.0, 75.0, 74.0, 45.0, 49.0, 20.0, 26.0, 18.0, 18.0, 7.0, 25.0, 7.0, 9.0, 3.0, 5.0, 2.0, 1.0, 0.0, 3.0, 0.0, 2.0, 3.0, 0.0, 1.0, 1.0, 0.0, 0.0, 0.0, 0.0, 1.0], "bins": [-2.066514492034912, -1.9965174198150635, -1.9265203475952148, -1.8565232753753662, -1.7865262031555176, -1.716529130935669, -1.6465320587158203, -1.5765349864959717, -1.506537914276123, -1.4365408420562744, -1.3665437698364258, -1.2965466976165771, -1.2265496253967285, -1.1565525531768799, -1.0865554809570312, -1.0165584087371826, -0.946561336517334, -0.8765642642974854, -0.8065671920776367, -0.7365701198577881, -0.6665730476379395, -0.5965759754180908, -0.5265789031982422, -0.45658183097839355, -0.3865847587585449, -0.3165876865386963, -0.24659061431884766, -0.17659354209899902, -0.10659646987915039, -0.03659939765930176, 0.033397674560546875, 0.10339474678039551, 0.17339181900024414, 0.24338889122009277, 0.3133859634399414, 0.38338303565979004, 0.45338010787963867, 0.5233771800994873, 0.5933742523193359, 0.6633713245391846, 0.7333683967590332, 0.8033654689788818, 0.8733625411987305, 0.9433596134185791, 1.0133566856384277, 1.0833537578582764, 1.153350830078125, 1.2233479022979736, 1.2933449745178223, 1.363342046737671, 1.4333391189575195, 1.5033361911773682, 1.5733332633972168, 1.6433303356170654, 1.713327407836914, 1.7833244800567627, 1.8533215522766113, 1.92331862449646, 1.9933156967163086, 2.0633127689361572, 2.133309841156006, 2.2033069133758545, 2.273303985595703, 2.3433010578155518, 2.4132981300354004]}, "gradients/encoder_z0.z0_diffeq_solver.ode_func.gradient_net.6.bias": {"_type": "histogram", "values": [1.0, 0.0, 0.0, 0.0, 0.0, 0.0, 0.0, 1.0, 0.0, 1.0, 0.0, 0.0, 0.0, 1.0, 0.0, 0.0, 0.0, 0.0, 0.0, 0.0, 0.0, 0.0, 0.0, 0.0, 1.0, 3.0, 1.0, 2.0, 2.0, 1.0, 1.0, 2.0, 0.0, 1.0, 0.0, 0.0, 0.0, 1.0, 0.0, 0.0, 0.0, 0.0, 0.0, 0.0, 0.0, 0.0, 0.0, 0.0, 0.0, 0.0, 0.0, 0.0, 0.0, 0.0, 0.0, 0.0, 0.0, 0.0, 0.0, 0.0, 0.0, 0.0, 0.0, 1.0], "bins": [-6.613063812255859, -6.395383358001709, -6.177702903747559, -5.960022449493408, -5.742341995239258, -5.524661540985107, -5.306981086730957, -5.089300632476807, -4.871620178222656, -4.653939723968506, -4.4362592697143555, -4.218578815460205, -4.000898361206055, -3.7832179069519043, -3.565537452697754, -3.3478569984436035, -3.130176544189453, -2.9124960899353027, -2.6948156356811523, -2.477135181427002, -2.2594547271728516, -2.041774272918701, -1.8240938186645508, -1.6064133644104004, -1.38873291015625, -1.1710524559020996, -0.9533720016479492, -0.7356915473937988, -0.5180110931396484, -0.30033063888549805, -0.08265018463134766, 0.13503026962280273, 0.3527102470397949, 0.5703907012939453, 0.7880711555480957, 1.005751609802246, 1.2234320640563965, 1.4411125183105469, 1.6587929725646973, 1.8764734268188477, 2.094153881072998, 2.3118343353271484, 2.529514789581299, 2.747195243835449, 2.9648756980895996, 3.18255615234375, 3.4002366065979004, 3.617917060852051, 3.835597515106201, 4.053277969360352, 4.270958423614502, 4.488638877868652, 4.706319332122803, 4.923999786376953, 5.1416802406311035, 5.359360694885254, 5.577041149139404, 5.794721603393555, 6.012402057647705, 6.2300825119018555, 6.447762966156006, 6.665443420410156, 6.883123874664307, 7.100804328918457, 7.318484783172607]}, "gradients/encoder_z0.z0_diffeq_solver.ode_func.gradient_net.6.weight": {"_type": "histogram", "values": [2.0, 1.0, 2.0, 0.0, 1.0, 4.0, 1.0, 2.0, 1.0, 1.0, 2.0, 5.0, 3.0, 5.0, 6.0, 8.0, 6.0, 11.0, 8.0, 9.0, 12.0, 18.0, 19.0, 21.0, 27.0, 39.0, 57.0, 115.0, 273.0, 556.0, 347.0, 153.0, 88.0, 35.0, 15.0, 23.0, 9.0, 23.0, 13.0, 9.0, 4.0, 15.0, 10.0, 3.0, 2.0, 8.0, 7.0, 3.0, 0.0, 5.0, 2.0, 2.0, 2.0, 0.0, 1.0, 1.0, 1.0, 2.0, 0.0, 0.0, 0.0, 0.0, 1.0, 1.0], "bins": [-3.525022029876709, -3.4062469005584717, -3.2874717712402344, -3.168696641921997, -3.0499215126037598, -2.9311466217041016, -2.8123714923858643, -2.693596363067627, -2.5748212337493896, -2.4560461044311523, -2.337270975112915, -2.2184958457946777, -2.0997209548950195, -1.9809457063674927, -1.862170696258545, -1.7433955669403076, -1.6246204376220703, -1.505845308303833, -1.3870701789855957, -1.268295168876648, -1.1495200395584106, -1.0307449102401733, -0.9119698405265808, -0.7931947708129883, -0.674419641494751, -0.5556445121765137, -0.43686944246292114, -0.3180943429470062, -0.1993192434310913, -0.080544114112854, 0.038230955600738525, 0.15700602531433105, 0.27578115463256836, 0.3945562541484833, 0.5133313536643982, 0.6321064233779907, 0.750881552696228, 0.8696566820144653, 0.9884317517280579, 1.1072068214416504, 1.2259819507598877, 1.344757080078125, 1.4635322093963623, 1.58230721950531, 1.7010823488235474, 1.8198574781417847, 1.9386324882507324, 2.0574076175689697, 2.176182746887207, 2.2949578762054443, 2.4137330055236816, 2.532508134841919, 2.6512832641601562, 2.7700581550598145, 2.8888332843780518, 3.007608413696289, 3.1263835430145264, 3.2451586723327637, 3.363933801651001, 3.4827089309692383, 3.6014838218688965, 3.720259189605713, 3.839034080505371, 3.9578092098236084, 4.076584339141846]}, "gradients/encoder_z0.z0_diffeq_solver.ode_func.gradient_net.4.bias": {"_type": "histogram", "values": [1.0, 0.0, 0.0, 0.0, 0.0, 0.0, 0.0, 0.0, 0.0, 0.0, 0.0, 0.0, 0.0, 0.0, 0.0, 3.0, 1.0, 5.0, 0.0, 0.0, 2.0, 2.0, 1.0, 3.0, 1.0, 2.0, 5.0, 2.0, 4.0, 4.0, 5.0, 3.0, 1.0, 1.0, 1.0, 5.0, 2.0, 4.0, 4.0, 5.0, 1.0, 4.0, 3.0, 5.0, 3.0, 1.0, 3.0, 1.0, 2.0, 0.0, 4.0, 2.0, 1.0, 0.0, 0.0, 0.0, 0.0, 1.0, 1.0, 0.0, 0.0, 0.0, 0.0, 1.0], "bins": [-3.984544038772583, -3.8685834407806396, -3.7526228427886963, -3.636662244796753, -3.5207016468048096, -3.4047412872314453, -3.288780689239502, -3.1728200912475586, -3.0568594932556152, -2.940898895263672, -2.8249382972717285, -2.708977699279785, -2.593017101287842, -2.4770565032958984, -2.361095905303955, -2.245135545730591, -2.1291747093200684, -2.013214111328125, -1.8972535133361816, -1.7812929153442383, -1.6653324365615845, -1.5493718385696411, -1.4334112405776978, -1.317450761795044, -1.2014901638031006, -1.0855295658111572, -0.9695690274238586, -0.8536084294319153, -0.7376478910446167, -0.6216872930526733, -0.50572669506073, -0.3897661566734314, -0.2738056182861328, -0.15784505009651184, -0.041884467005729675, 0.07407611608505249, 0.19003668427467346, 0.30599725246429443, 0.4219578504562378, 0.5379183888435364, 0.653878927230835, 0.7698395252227783, 0.8858000636100769, 1.001760721206665, 1.1177211999893188, 1.2336817979812622, 1.3496423959732056, 1.4656028747558594, 1.5815635919570923, 1.6975241899490356, 1.813484787940979, 1.9294452667236328, 2.045405864715576, 2.1613664627075195, 2.277327060699463, 2.3932876586914062, 2.5092482566833496, 2.625208854675293, 2.7411694526672363, 2.8571300506591797, 2.973090648651123, 3.0890512466430664, 3.2050118446350098, 3.320972204208374, 3.4369328022003174]}, "gradients/encoder_z0.z0_diffeq_solver.ode_func.gradient_net.4.weight": {"_type": "histogram", "values": [1.0, 0.0, 0.0, 0.0, 0.0, 0.0, 1.0, 0.0, 2.0, 0.0, 1.0, 0.0, 1.0, 1.0, 1.0, 4.0, 9.0, 11.0, 6.0, 18.0, 16.0, 21.0, 30.0, 40.0, 62.0, 84.0, 108.0, 143.0, 175.0, 301.0, 414.0, 568.0, 880.0, 1500.0, 1837.0, 1226.0, 776.0, 498.0, 343.0, 270.0, 166.0, 120.0, 97.0, 73.0, 41.0, 34.0, 39.0, 26.0, 9.0, 12.0, 8.0, 7.0, 3.0, 1.0, 2.0, 2.0, 3.0, 1.0, 5.0, 2.0, 0.0, 0.0, 0.0, 1.0], "bins": [-1.7496652603149414, -1.698702096939087, -1.647739052772522, -1.5967758893966675, -1.545812726020813, -1.494849681854248, -1.4438865184783936, -1.392923355102539, -1.3419601917266846, -1.29099702835083, -1.2400339841842651, -1.1890708208084106, -1.1381076574325562, -1.0871446132659912, -1.0361814498901367, -0.9852182865142822, -0.9342552423477173, -0.8832921385765076, -0.8323289752006531, -0.7813658714294434, -0.7304027080535889, -0.6794396042823792, -0.6284765005111694, -0.5775133371353149, -0.52655029296875, -0.4755871593952179, -0.4246240258216858, -0.3736609220504761, -0.32269778847694397, -0.27173465490341187, -0.22077155113220215, -0.16980841755867004, -0.11884522438049316, -0.06788209825754166, -0.01691897213459015, 0.03404414653778076, 0.08500728011131287, 0.13597041368484497, 0.1869335174560547, 0.2378966510295868, 0.28885984420776367, 0.3398229777812958, 0.3907861113548279, 0.4417492151260376, 0.4927123486995697, 0.5436754822731018, 0.5946385860443115, 0.645601749420166, 0.696564793586731, 0.7475278973579407, 0.7984910607337952, 0.8494541645050049, 0.9004173278808594, 0.9513804316520691, 1.0023435354232788, 1.0533066987991333, 1.1042697429656982, 1.1552329063415527, 1.2061959505081177, 1.2571591138839722, 1.3081222772598267, 1.3590853214263916, 1.410048484802246, 1.4610116481781006, 1.511974811553955]}, "gradients/encoder_z0.z0_diffeq_solver.ode_func.gradient_net.2.bias": {"_type": "histogram", "values": [1.0, 2.0, 0.0, 0.0, 0.0, 1.0, 3.0, 0.0, 0.0, 0.0, 2.0, 2.0, 1.0, 2.0, 0.0, 0.0, 1.0, 2.0, 2.0, 3.0, 2.0, 1.0, 5.0, 2.0, 5.0, 1.0, 4.0, 3.0, 5.0, 0.0, 6.0, 3.0, 2.0, 2.0, 2.0, 4.0, 1.0, 2.0, 5.0, 1.0, 2.0, 1.0, 3.0, 5.0, 2.0, 1.0, 2.0, 1.0, 1.0, 0.0, 0.0, 0.0, 0.0, 1.0, 0.0, 0.0, 1.0, 0.0, 0.0, 0.0, 1.0, 0.0, 0.0, 1.0], "bins": [-3.146864891052246, -3.0385231971740723, -2.9301812648773193, -2.8218395709991455, -2.7134976387023926, -2.6051559448242188, -2.496814012527466, -2.388472318649292, -2.280130386352539, -2.1717886924743652, -2.0634467601776123, -1.955104947090149, -1.8467631340026855, -1.7384214401245117, -1.6300795078277588, -1.521737813949585, -1.4133960008621216, -1.3050541877746582, -1.1967123746871948, -1.0883705615997314, -0.9800287485122681, -0.8716869950294495, -0.7633451819419861, -0.6550033688545227, -0.5466616153717041, -0.4383198022842407, -0.32997798919677734, -0.22163620591163635, -0.11329439282417297, -0.004952609539031982, 0.1033892035484314, 0.21173101663589478, 0.32007288932800293, 0.4284147024154663, 0.5367565155029297, 0.6450983285903931, 0.7534401416778564, 0.861781895160675, 0.9701237082481384, 1.078465461730957, 1.18680739402771, 1.2951492071151733, 1.4034910202026367, 1.5118328332901, 1.6201746463775635, 1.7285163402557373, 1.8368582725524902, 1.945199966430664, 2.053541660308838, 2.1618833541870117, 2.2702252864837646, 2.3785669803619385, 2.4869089126586914, 2.5952506065368652, 2.703592538833618, 2.811934232711792, 2.920276165008545, 3.0286178588867188, 3.1369597911834717, 3.2453014850616455, 3.3536434173583984, 3.4619851112365723, 3.570327043533325, 3.678668737411499, 3.787010669708252]}, "gradients/encoder_z0.z0_diffeq_solver.ode_func.gradient_net.2.weight": {"_type": "histogram", "values": [1.0, 0.0, 0.0, 1.0, 1.0, 0.0, 0.0, 3.0, 3.0, 2.0, 2.0, 5.0, 2.0, 9.0, 8.0, 9.0, 7.0, 20.0, 27.0, 25.0, 34.0, 49.0, 59.0, 84.0, 88.0, 136.0, 138.0, 226.0, 319.0, 416.0, 614.0, 915.0, 1683.0, 1738.0, 974.0, 623.0, 464.0, 329.0, 241.0, 160.0, 127.0, 116.0, 78.0, 54.0, 41.0, 42.0, 19.0, 24.0, 19.0, 16.0, 10.0, 9.0, 4.0, 6.0, 5.0, 4.0, 3.0, 1.0, 2.0, 2.0, 2.0, 0.0, 0.0, 1.0], "bins": [-1.636552333831787, -1.5870423316955566, -1.5375324487686157, -1.4880224466323853, -1.4385124444961548, -1.3890025615692139, -1.3394925594329834, -1.289982557296753, -1.2404725551605225, -1.190962553024292, -1.141452670097351, -1.0919426679611206, -1.0424326658248901, -0.9929227232933044, -0.9434127807617188, -0.8939027786254883, -0.8443928956985474, -0.7948829531669617, -0.7453729510307312, -0.6958630084991455, -0.646353006362915, -0.5968430638313293, -0.5473331212997437, -0.49782314896583557, -0.44831323623657227, -0.3988032639026642, -0.3492932915687561, -0.2997833490371704, -0.25027337670326233, -0.20076340436935425, -0.15125346183776855, -0.10174348950386047, -0.05223357677459717, -0.002723611891269684, 0.0467863529920578, 0.09629631042480469, 0.14580628275871277, 0.19531625509262085, 0.24482619762420654, 0.2943361699581146, 0.3438462018966675, 0.39335617423057556, 0.44286614656448364, 0.49237608909606934, 0.5418860912322998, 0.5913960337638855, 0.6409059762954712, 0.6904159784317017, 0.7399258613586426, 0.7894358038902283, 0.8389458060264587, 0.8884557485580444, 0.9379657506942749, 0.9874756932258606, 1.0369856357574463, 1.0864956378936768, 1.1360056400299072, 1.1855156421661377, 1.2350255250930786, 1.284535527229309, 1.3340455293655396, 1.3835554122924805, 1.433065414428711, 1.4825754165649414, 1.5320852994918823]}, "gradients/encoder_z0.z0_diffeq_solver.ode_func.gradient_net.0.bias": {"_type": "histogram", "values": [1.0, 0.0, 1.0, 2.0, 0.0, 0.0, 0.0, 1.0, 0.0, 0.0, 1.0, 1.0, 2.0, 1.0, 1.0, 3.0, 2.0, 6.0, 2.0, 4.0, 2.0, 2.0, 3.0, 2.0, 1.0, 4.0, 5.0, 3.0, 3.0, 4.0, 3.0, 4.0, 3.0, 6.0, 1.0, 2.0, 1.0, 3.0, 1.0, 1.0, 0.0, 4.0, 3.0, 4.0, 2.0, 0.0, 0.0, 2.0, 0.0, 0.0, 0.0, 0.0, 0.0, 0.0, 1.0, 0.0, 1.0, 0.0, 0.0, 0.0, 0.0, 0.0, 0.0, 1.0], "bins": [-3.57780122756958, -3.4581010341644287, -3.3384010791778564, -3.218700885772705, -3.099000930786133, -2.9793007373809814, -2.85960054397583, -2.739900588989258, -2.6202006340026855, -2.500500440597534, -2.380800485610962, -2.2611002922058105, -2.1414003372192383, -2.021700143814087, -1.902000069618225, -1.7822999954223633, -1.662599802017212, -1.54289972782135, -1.4231996536254883, -1.303499460220337, -1.1837995052337646, -1.0640993118286133, -0.9443992376327515, -0.8246991634368896, -0.7049989700317383, -0.5852988958358765, -0.46559879183769226, -0.34589868783950806, -0.22619861364364624, -0.10649853944778442, 0.013201594352722168, 0.13290166854858398, 0.25260162353515625, 0.37230169773101807, 0.49200180172920227, 0.6117019057273865, 0.7314019799232483, 0.8511020541191101, 0.9708021879196167, 1.0905022621154785, 1.2102022171020508, 1.3299022912979126, 1.4496023654937744, 1.5693025588989258, 1.689002513885498, 1.8087027072906494, 1.9284027814865112, 2.048102855682373, 2.1678030490875244, 2.287503242492676, 2.407203197479248, 2.5269033908843994, 2.6466033458709717, 2.766303539276123, 2.8860034942626953, 3.0057036876678467, 3.125403881072998, 3.2451040744781494, 3.3648040294647217, 3.484504222869873, 3.6042041778564453, 3.7239043712615967, 3.843604564666748, 3.9633045196533203, 4.083004474639893]}, "gradients/encoder_z0.z0_diffeq_solver.ode_func.gradient_net.0.weight": {"_type": "histogram", "values": [1.0, 2.0, 1.0, 0.0, 2.0, 0.0, 1.0, 1.0, 1.0, 2.0, 1.0, 4.0, 4.0, 6.0, 3.0, 6.0, 11.0, 9.0, 12.0, 18.0, 19.0, 20.0, 26.0, 36.0, 35.0, 73.0, 107.0, 167.0, 262.0, 374.0, 250.0, 188.0, 92.0, 74.0, 44.0, 26.0, 22.0, 12.0, 22.0, 16.0, 12.0, 5.0, 7.0, 9.0, 2.0, 0.0, 3.0, 4.0, 0.0, 1.0, 1.0, 1.0, 1.0, 0.0, 0.0, 1.0, 1.0, 0.0, 1.0, 0.0, 0.0, 0.0, 0.0, 1.0], "bins": [-3.1638753414154053, -3.0571506023406982, -2.950425624847412, -2.843700885772705, -2.736976146697998, -2.630251169204712, -2.523526430130005, -2.4168014526367188, -2.3100767135620117, -2.2033519744873047, -2.0966269969940186, -1.9899022579193115, -1.883177399635315, -1.7764525413513184, -1.6697278022766113, -1.5630029439926147, -1.4562782049179077, -1.3495533466339111, -1.242828607559204, -1.1361037492752075, -1.029378890991211, -0.9226540923118591, -0.8159292936325073, -0.7092044353485107, -0.6024796962738037, -0.4957548677921295, -0.3890300393104553, -0.2823052406311035, -0.17558041214942932, -0.06885558366775513, 0.03786921501159668, 0.14459407329559326, 0.25131893157958984, 0.35804376006126404, 0.46476858854293823, 0.57149338722229, 0.6782182455062866, 0.7849430441856384, 0.8916678428649902, 0.9983927011489868, 1.1051175594329834, 1.21184241771698, 1.318567156791687, 1.4252920150756836, 1.5320168733596802, 1.6387417316436768, 1.7454664707183838, 1.8521913290023804, 1.9589160680770874, 2.065640926361084, 2.172365665435791, 2.279090404510498, 2.385815382003784, 2.492540121078491, 2.5992650985717773, 2.7059898376464844, 2.8127145767211914, 2.9194393157958984, 3.0261642932891846, 3.1328890323638916, 3.2396137714385986, 3.3463387489318848, 3.453063488006592, 3.559788227081299, 3.666513204574585]}, "_wandb": {"runtime": 1561}}